digraph Tree {
node [shape=box] ;
0 [label="X[0] <= 16.5\ngini = 0.39\nsamples = 4922\nvalue = [3614, 1308]"] ;
1 [label="X[1] <= 68.625\ngini = 0.496\nsamples = 1776\nvalue = [964, 812]"] ;
0 -> 1 [labeldistance=2.5, labelangle=45, headlabel="True"] ;
2 [label="X[0] <= 3.5\ngini = 0.419\nsamples = 948\nvalue = [665, 283]"] ;
1 -> 2 ;
3 [label="X[1] <= 24.125\ngini = 0.493\nsamples = 405\nvalue = [226, 179]"] ;
2 -> 3 ;
4 [label="X[2] <= 32.125\ngini = 0.429\nsamples = 164\nvalue = [113, 51]"] ;
3 -> 4 ;
5 [label="gini = 0.47\nsamples = 111\nvalue = [69, 42]"] ;
4 -> 5 ;
6 [label="gini = 0.282\nsamples = 53\nvalue = [44, 9]"] ;
4 -> 6 ;
7 [label="X[2] <= 108.975\ngini = 0.498\nsamples = 241\nvalue = [113, 128]"] ;
3 -> 7 ;
8 [label="gini = 0.492\nsamples = 197\nvalue = [86, 111]"] ;
7 -> 8 ;
9 [label="gini = 0.474\nsamples = 44\nvalue = [27, 17]"] ;
7 -> 9 ;
10 [label="X[1] <= 22.2\ngini = 0.31\nsamples = 543\nvalue = [439, 104]"] ;
2 -> 10 ;
11 [label="X[2] <= 341.875\ngini = 0.141\nsamples = 210\nvalue = [194, 16]"] ;
10 -> 11 ;
12 [label="gini = 0.134\nsamples = 208\nvalue = [193, 15]"] ;
11 -> 12 ;
13 [label="gini = 0.5\nsamples = 2\nvalue = [1, 1]"] ;
11 -> 13 ;
14 [label="X[1] <= 54.575\ngini = 0.389\nsamples = 333\nvalue = [245, 88]"] ;
10 -> 14 ;
15 [label="gini = 0.424\nsamples = 226\nvalue = [157, 69]"] ;
14 -> 15 ;
16 [label="gini = 0.292\nsamples = 107\nvalue = [88, 19]"] ;
14 -> 16 ;
17 [label="X[2] <= 120.0\ngini = 0.461\nsamples = 828\nvalue = [299, 529]"] ;
1 -> 17 ;
18 [label="X[1] <= 70.025\ngini = 0.245\nsamples = 168\nvalue = [24, 144]"] ;
17 -> 18 ;
19 [label="gini = 0.0\nsamples = 31\nvalue = [0, 31]"] ;
18 -> 19 ;
20 [label="X[2] <= 75.625\ngini = 0.289\nsamples = 137\nvalue = [24, 113]"] ;
18 -> 20 ;
21 [label="gini = 0.398\nsamples = 62\nvalue = [17, 45]"] ;
20 -> 21 ;
22 [label="gini = 0.169\nsamples = 75\nvalue = [7, 68]"] ;
20 -> 22 ;
23 [label="X[1] <= 70.6\ngini = 0.486\nsamples = 660\nvalue = [275, 385]"] ;
17 -> 23 ;
24 [label="X[0] <= 8.5\ngini = 0.438\nsamples = 74\nvalue = [50, 24]"] ;
23 -> 24 ;
25 [label="gini = 0.487\nsamples = 50\nvalue = [29, 21]"] ;
24 -> 25 ;
26 [label="gini = 0.219\nsamples = 24\nvalue = [21, 3]"] ;
24 -> 26 ;
27 [label="X[1] <= 94.925\ngini = 0.473\nsamples = 586\nvalue = [225, 361]"] ;
23 -> 27 ;
28 [label="gini = 0.487\nsamples = 460\nvalue = [193, 267]"] ;
27 -> 28 ;
29 [label="gini = 0.379\nsamples = 126\nvalue = [32, 94]"] ;
27 -> 29 ;
30 [label="X[1] <= 69.95\ngini = 0.266\nsamples = 3146\nvalue = [2650, 496]"] ;
0 -> 30 [labeldistance=2.5, labelangle=-45, headlabel="False"] ;
31 [label="X[1] <= 28.55\ngini = 0.127\nsamples = 1395\nvalue = [1300, 95]"] ;
30 -> 31 ;
32 [label="X[0] <= 61.5\ngini = 0.043\nsamples = 676\nvalue = [661, 15]"] ;
31 -> 32 ;
33 [label="X[1] <= 24.075\ngini = 0.06\nsamples = 487\nvalue = [472, 15]"] ;
32 -> 33 ;
34 [label="gini = 0.037\nsamples = 372\nvalue = [365, 7]"] ;
33 -> 34 ;
35 [label="gini = 0.129\nsamples = 115\nvalue = [107, 8]"] ;
33 -> 35 ;
36 [label="gini = 0.0\nsamples = 189\nvalue = [189, 0]"] ;
32 -> 36 ;
37 [label="X[2] <= 1257.025\ngini = 0.198\nsamples = 719\nvalue = [639, 80]"] ;
31 -> 37 ;
38 [label="X[1] <= 28.85\ngini = 0.35\nsamples = 137\nvalue = [106, 31]"] ;
37 -> 38 ;
39 [label="gini = 0.0\nsamples = 1\nvalue = [0, 1]"] ;
38 -> 39 ;
40 [label="gini = 0.344\nsamples = 136\nvalue = [106, 30]"] ;
38 -> 40 ;
41 [label="X[2] <= 3269.4\ngini = 0.154\nsamples = 582\nvalue = [533, 49]"] ;
37 -> 41 ;
42 [label="gini = 0.195\nsamples = 412\nvalue = [367, 45]"] ;
41 -> 42 ;
43 [label="gini = 0.046\nsamples = 170\nvalue = [166, 4]"] ;
41 -> 43 ;
44 [label="X[0] <= 44.5\ngini = 0.353\nsamples = 1751\nvalue = [1350, 401]"] ;
30 -> 44 ;
45 [label="X[1] <= 83.6\ngini = 0.461\nsamples = 690\nvalue = [441, 249]"] ;
44 -> 45 ;
46 [label="X[1] <= 70.325\ngini = 0.392\nsamples = 232\nvalue = [170, 62]"] ;
45 -> 46 ;
47 [label="gini = 0.444\nsamples = 6\nvalue = [2, 4]"] ;
46 -> 47 ;
48 [label="gini = 0.382\nsamples = 226\nvalue = [168, 58]"] ;
46 -> 48 ;
49 [label="X[2] <= 3274.35\ngini = 0.483\nsamples = 458\nvalue = [271, 187]"] ;
45 -> 49 ;
50 [label="gini = 0.498\nsamples = 296\nvalue = [158, 138]"] ;
49 -> 50 ;
51 [label="gini = 0.422\nsamples = 162\nvalue = [113, 49]"] ;
49 -> 51 ;
52 [label="X[0] <= 70.5\ngini = 0.245\nsamples = 1061\nvalue = [909, 152]"] ;
44 -> 52 ;
53 [label="X[1] <= 95.225\ngini = 0.297\nsamples = 809\nvalue = [662, 147]"] ;
52 -> 53 ;
54 [label="gini = 0.204\nsamples = 390\nvalue = [345, 45]"] ;
53 -> 54 ;
55 [label="gini = 0.368\nsamples = 419\nvalue = [317, 102]"] ;
53 -> 55 ;
56 [label="X[1] <= 117.65\ngini = 0.039\nsamples = 252\nvalue = [247, 5]"] ;
52 -> 56 ;
57 [label="gini = 0.031\nsamples = 251\nvalue = [247, 4]"] ;
56 -> 57 ;
58 [label="gini = 0.0\nsamples = 1\nvalue = [0, 1]"] ;
56 -> 58 ;
}
